<?xml version="1.0"?>
<opencv_storage>
<stage1>
  <maxWeakCount>5</maxWeakCount>
  <stageThreshold>-1.5967687368392944e+00</stageThreshold>
  <weakClassifiers>
    <_>
      <internalNodes>
        0 -1 57379 1.4146003872156143e-02</internalNodes>
      <leafValues>
        -8.4149181842803955e-01 8.6111110448837280e-01</leafValues></_>
    <_>
      <internalNodes>
        0 -1 4483365 -2.0664714276790619e-02</internalNodes>
      <leafValues>
        7.3994666337966919e-01 -7.0645976066589355e-01</leafValues></_>
    <_>
      <internalNodes>
        0 -1 2897528 -5.5139534175395966e-02</internalNodes>
      <leafValues>
        4.8679780960083008e-01 -6.6604483127593994e-01</leafValues></_>
    <_>
      <internalNodes>
        0 -1 5062434 5.0948972784681246e-05</internalNodes>
      <leafValues>
        3.2816258072853088e-01 -9.7865271568298340e-01</leafValues></_>
    <_>
      <internalNodes>
        0 -1 3939506 -3.5152104101143777e-04</internalNodes>
      <leafValues>
        -9.6118605136871338e-01 2.8906509280204773e-01</leafValues></_></weakClassifiers></stage1>
</opencv_storage>
