<?xml version="1.0"?>
<opencv_storage>
<stage15>
  <maxWeakCount>5</maxWeakCount>
  <stageThreshold>-1.2774966955184937e+00</stageThreshold>
  <weakClassifiers>
    <_>
      <internalNodes>
        0 -1 5085764 -2.5605577975511551e-03</internalNodes>
      <leafValues>
        5.3191488981246948e-01 -6.7136150598526001e-01</leafValues></_>
    <_>
      <internalNodes>
        0 -1 1635038 9.4073275104165077e-03</internalNodes>
      <leafValues>
        -4.7387257218360901e-01 6.3057410717010498e-01</leafValues></_>
    <_>
      <internalNodes>
        0 -1 1464480 -1.7072755144909024e-04</internalNodes>
      <leafValues>
        -9.4547355175018311e-01 2.9047003388404846e-01</leafValues></_>
    <_>
      <internalNodes>
        0 -1 4901538 -8.0540248745819554e-06</internalNodes>
      <leafValues>
        4.1630241274833679e-01 -6.2899446487426758e-01</leafValues></_>
    <_>
      <internalNodes>
        0 -1 2330146 9.4271381385624409e-04</internalNodes>
      <leafValues>
        2.0626184344291687e-01 -9.1309678554534912e-01</leafValues></_></weakClassifiers></stage15>
</opencv_storage>
