<?xml version="1.0"?>
<opencv_storage>
<stage16>
  <maxWeakCount>5</maxWeakCount>
  <stageThreshold>-1.2413215637207031e+00</stageThreshold>
  <weakClassifiers>
    <_>
      <internalNodes>
        0 -1 159471 7.9625844955444336e-03</internalNodes>
      <leafValues>
        -6.3157892227172852e-01 6.4556962251663208e-01</leafValues></_>
    <_>
      <internalNodes>
        0 -1 4752321 -5.7264347560703754e-04</internalNodes>
      <leafValues>
        5.2913081645965576e-01 -5.1113152503967285e-01</leafValues></_>
    <_>
      <internalNodes>
        0 -1 4925815 9.9227041937410831e-04</internalNodes>
      <leafValues>
        2.3531635105609894e-01 -9.8456573486328125e-01</leafValues></_>
    <_>
      <internalNodes>
        0 -1 4175532 1.0967686102958396e-04</internalNodes>
      <leafValues>
        -6.1839503049850464e-01 3.4229561686515808e-01</leafValues></_>
    <_>
      <internalNodes>
        0 -1 462024 5.7036615908145905e-04</internalNodes>
      <leafValues>
        2.8446757793426514e-01 -8.9651685953140259e-01</leafValues></_></weakClassifiers></stage16>
</opencv_storage>
