<?xml version="1.0"?>
<opencv_storage>
<stage12>
  <maxWeakCount>7</maxWeakCount>
  <stageThreshold>-1.4885565042495728e+00</stageThreshold>
  <weakClassifiers>
    <_>
      <internalNodes>
        0 -1 4998387 -1.7640092410147190e-03</internalNodes>
      <leafValues>
        4.5679011940956116e-01 -8.0000001192092896e-01</leafValues></_>
    <_>
      <internalNodes>
        0 -1 200964 2.1623005159199238e-03</internalNodes>
      <leafValues>
        -6.8103468418121338e-01 2.9742333292961121e-01</leafValues></_>
    <_>
      <internalNodes>
        0 -1 5019914 -3.5439966268313583e-06</internalNodes>
      <leafValues>
        3.6344131827354431e-01 -5.7514309883117676e-01</leafValues></_>
    <_>
      <internalNodes>
        0 -1 1177383 -1.7565970774739981e-03</internalNodes>
      <leafValues>
        -7.2436517477035522e-01 2.7672141790390015e-01</leafValues></_>
    <_>
      <internalNodes>
        0 -1 2462105 2.4607609957456589e-03</internalNodes>
      <leafValues>
        -3.2275941967964172e-01 7.4889039993286133e-01</leafValues></_>
    <_>
      <internalNodes>
        0 -1 4109688 -7.4647294241003692e-05</internalNodes>
      <leafValues>
        4.3919584155082703e-01 -5.7157886028289795e-01</leafValues></_>
    <_>
      <internalNodes>
        0 -1 5077585 -1.1516995728015900e-03</internalNodes>
      <leafValues>
        -7.6412093639373779e-01 2.5946736335754395e-01</leafValues></_></weakClassifiers></stage12>
</opencv_storage>
