<?xml version="1.0"?>
<opencv_storage>
<stage14>
  <maxWeakCount>7</maxWeakCount>
  <stageThreshold>-1.7580974102020264e+00</stageThreshold>
  <weakClassifiers>
    <_>
      <internalNodes>
        0 -1 1504775 -4.9587857723236084e-01</internalNodes>
      <leafValues>
        7.5609755516052246e-01 -8.0836707353591919e-01</leafValues></_>
    <_>
      <internalNodes>
        0 -1 4468349 5.2683651447296143e-03</internalNodes>
      <leafValues>
        -5.6972938776016235e-01 4.8363330960273743e-01</leafValues></_>
    <_>
      <internalNodes>
        0 -1 4904808 -1.5057239215821028e-04</internalNodes>
      <leafValues>
        1.9475470483303070e-01 -8.2665842771530151e-01</leafValues></_>
    <_>
      <internalNodes>
        0 -1 5095795 -3.7992853322066367e-05</internalNodes>
      <leafValues>
        -7.3557633161544800e-01 1.8385976552963257e-01</leafValues></_>
    <_>
      <internalNodes>
        0 -1 3036135 -1.3949746789876372e-04</internalNodes>
      <leafValues>
        3.1247225403785706e-01 -5.7136446237564087e-01</leafValues></_>
    <_>
      <internalNodes>
        0 -1 1779936 2.4075720459222794e-02</internalNodes>
      <leafValues>
        -3.7532585859298706e-01 5.1229292154312134e-01</leafValues></_>
    <_>
      <internalNodes>
        0 -1 5077919 -1.2046983465552330e-04</internalNodes>
      <leafValues>
        -8.6611175537109375e-01 2.2367437183856964e-01</leafValues></_></weakClassifiers></stage14>
</opencv_storage>
