<?xml version="1.0"?>
<opencv_storage>
<stage8>
  <maxWeakCount>6</maxWeakCount>
  <stageThreshold>-2.0699295997619629e+00</stageThreshold>
  <weakClassifiers>
    <_>
      <internalNodes>
        0 -1 681474 1.0039225220680237e-02</internalNodes>
      <leafValues>
        -8.3933520317077637e-01 6.3333332538604736e-01</leafValues></_>
    <_>
      <internalNodes>
        0 -1 5085767 -2.8810487128794193e-03</internalNodes>
      <leafValues>
        5.5234283208847046e-01 -6.1109369993209839e-01</leafValues></_>
    <_>
      <internalNodes>
        0 -1 795422 3.3092967441916699e-06</internalNodes>
      <leafValues>
        2.7053979039192200e-01 -8.1256884336471558e-01</leafValues></_>
    <_>
      <internalNodes>
        0 -1 2331871 5.2463589236140251e-03</internalNodes>
      <leafValues>
        -4.9118292331695557e-01 4.7452428936958313e-01</leafValues></_>
    <_>
      <internalNodes>
        0 -1 3269763 -2.3905219859443605e-04</internalNodes>
      <leafValues>
        3.9507931470870972e-01 -7.2156411409378052e-01</leafValues></_>
    <_>
      <internalNodes>
        0 -1 3467885 -6.5170548623427749e-05</internalNodes>
      <leafValues>
        2.8917169570922852e-01 -6.8460911512374878e-01</leafValues></_></weakClassifiers></stage8>
</opencv_storage>
