<?xml version="1.0"?>
<opencv_storage>
<stage3>
  <maxWeakCount>6</maxWeakCount>
  <stageThreshold>-1.3538715839385986e+00</stageThreshold>
  <weakClassifiers>
    <_>
      <internalNodes>
        0 -1 5081691 -5.1208697259426117e-03</internalNodes>
      <leafValues>
        8.6516851186752319e-01 -7.7981650829315186e-01</leafValues></_>
    <_>
      <internalNodes>
        0 -1 886268 -2.6877238415181637e-03</internalNodes>
      <leafValues>
        8.2739377021789551e-01 -6.0165399312973022e-01</leafValues></_>
    <_>
      <internalNodes>
        0 -1 335347 -1.8366774384048767e-05</internalNodes>
      <leafValues>
        4.6528610587120056e-01 -8.8078445196151733e-01</leafValues></_>
    <_>
      <internalNodes>
        0 -1 707812 -3.3616709988564253e-03</internalNodes>
      <leafValues>
        7.1806758642196655e-01 -5.1804441213607788e-01</leafValues></_>
    <_>
      <internalNodes>
        0 -1 4604722 -1.5542453154921532e-02</internalNodes>
      <leafValues>
        8.4816819429397583e-01 -4.7075802087783813e-01</leafValues></_>
    <_>
      <internalNodes>
        0 -1 3859452 -1.4404936518985778e-04</internalNodes>
      <leafValues>
        5.5111521482467651e-01 -7.8903579711914063e-01</leafValues></_></weakClassifiers></stage3>
</opencv_storage>
