<?xml version="1.0"?>
<opencv_storage>
<stage17>
  <maxWeakCount>5</maxWeakCount>
  <stageThreshold>-9.8369812965393066e-01</stageThreshold>
  <weakClassifiers>
    <_>
      <internalNodes>
        0 -1 148150 6.7359546665102243e-04</internalNodes>
      <leafValues>
        -7.5000000000000000e-01 4.4347825646400452e-01</leafValues></_>
    <_>
      <internalNodes>
        0 -1 723417 -5.1116915419697762e-03</internalNodes>
      <leafValues>
        5.7219457626342773e-01 -4.5330911874771118e-01</leafValues></_>
    <_>
      <internalNodes>
        0 -1 4186343 -5.1383871323196217e-05</internalNodes>
      <leafValues>
        4.2891827225685120e-01 -6.1327683925628662e-01</leafValues></_>
    <_>
      <internalNodes>
        0 -1 4984971 7.6536987908184528e-03</internalNodes>
      <leafValues>
        -4.7489640116691589e-01 5.3818976879119873e-01</leafValues></_>
    <_>
      <internalNodes>
        0 -1 5028624 -7.4762923759408295e-05</internalNodes>
      <leafValues>
        -7.4749708175659180e-01 3.5740116238594055e-01</leafValues></_></weakClassifiers></stage17>
</opencv_storage>
