<?xml version="1.0"?>
<opencv_storage>
<stage16>
  <maxWeakCount>6</maxWeakCount>
  <stageThreshold>-1.4774130582809448e+00</stageThreshold>
  <weakClassifiers>
    <_>
      <internalNodes>
        0 -1 2465769 -2.0985412597656250e-01</internalNodes>
      <leafValues>
        6.4102566242218018e-01 -7.9811573028564453e-01</leafValues></_>
    <_>
      <internalNodes>
        0 -1 2833279 6.3804937526583672e-03</internalNodes>
      <leafValues>
        -5.5762821435928345e-01 4.2206498980522156e-01</leafValues></_>
    <_>
      <internalNodes>
        0 -1 3917859 2.3180669813882560e-05</internalNodes>
      <leafValues>
        -3.7737068533897400e-01 4.2827272415161133e-01</leafValues></_>
    <_>
      <internalNodes>
        0 -1 311898 7.9439079854637384e-04</internalNodes>
      <leafValues>
        -3.5029345750808716e-01 5.4154032468795776e-01</leafValues></_>
    <_>
      <internalNodes>
        0 -1 5075732 -5.1356862968532369e-05</internalNodes>
      <leafValues>
        -5.5380767583847046e-01 3.2089626789093018e-01</leafValues></_>
    <_>
      <internalNodes>
        0 -1 1283172 -2.1104331244714558e-04</internalNodes>
      <leafValues>
        3.5415929555892944e-01 -4.6611428260803223e-01</leafValues></_></weakClassifiers></stage16>
</opencv_storage>
