<?xml version="1.0"?>
<opencv_storage>
<stage10>
  <maxWeakCount>5</maxWeakCount>
  <stageThreshold>-1.3141609430313110e+00</stageThreshold>
  <weakClassifiers>
    <_>
      <internalNodes>
        0 -1 346893 1.3796120882034302e-02</internalNodes>
      <leafValues>
        -8.3401358127593994e-01 9.5744681358337402e-01</leafValues></_>
    <_>
      <internalNodes>
        0 -1 4885296 -7.1533899754285812e-03</internalNodes>
      <leafValues>
        4.7527313232421875e-01 -6.3331633806228638e-01</leafValues></_>
    <_>
      <internalNodes>
        0 -1 4654566 9.6154597122222185e-04</internalNodes>
      <leafValues>
        -8.6157226562500000e-01 2.5658744573593140e-01</leafValues></_>
    <_>
      <internalNodes>
        0 -1 1206224 1.7509112367406487e-03</internalNodes>
      <leafValues>
        -4.3866768479347229e-01 5.2643430233001709e-01</leafValues></_>
    <_>
      <internalNodes>
        0 -1 4108133 -2.4264540115837008e-05</internalNodes>
      <leafValues>
        3.3524921536445618e-01 -7.2470688819885254e-01</leafValues></_></weakClassifiers></stage10>
</opencv_storage>
